{
  "w": [
    0.2865086328006516,
    0.19202555978679967,
    0.04150245567073237,
    0.2652015071021332,
    -0.0855728080298938,
    0.3476163099985874,
    -0.23579347016678578,
    -0.2543863821628236,
    0.26948289648378837,
    -0.1997180697757887,
    -0.16635085829138396,
    -0.6169742808426011,
    -0.22883903619310583,
    -0.05779162602579303,
    0.011425684089558803,
    -0.019457178038245326,
    0.03691528661820751,
    -0.05872788166865796,
    0.2138899874766991,
    -0.051438847561457654,
    -0.4091835269430893,
    -0.5393205028338827,
    0.2837914159263252,
    0.21405461434661427,
    -0.3023561032591673,
    0.22793108260515593,
    0.14836337755162465,
    -0.06451810020007262,
    0.14194623406491763,
    0.15023249322685764,
    -0.13558340224721094,
    0.3858279532649424,
    0.023957920348604216,
    -0.05017730984194959,
    -0.05282571995648274,
    0.4780429553159289,
    -0.1437562296550223,
    0.0019897927390145767,
    0.3155182119355561,
    0.0917122309725425,
    0.15135334782171467,
    -0.015188307126984133,
    0.23744710460531912,
    -0.1572846985895808,
    0.16847592258078772,
    0.08355907931620844,
    0.013538151075138272,
    -0.030170820756795783,
    0.025089487222170435,
    0.1724248988048984,
    -0.22058684807813375,
    0.013069025237886837,
    0.12186122671683257,
    -0.13332929021530784,
    -0.022338426588050825,
    0.21702373348983986,
    0.3176215375608796,
    -0.14993082023746185,
    -0.04321047740143096,
    -0.056658064583042136,
    0.10065517306071269,
    -0.3954809112951631,
    -0.004008174681378794,
    0.16459738406888985,
    0.04728377476323889,
    0.01785670798935332,
    -0.421390504735419,
    0.19916594421994377,
    -0.1534534011432838,
    -0.46529965325312156,
    -0.11532660793197101,
    -0.20283415909905217,
    0.4467240658719628,
    -0.21832023772582002,
    0.0660969062040578,
    0.06703868202276053,
    -0.30187413167913973,
    -0.19171421182090367,
    -0.342587412119546,
    -0.18131593834197907,
    0.257468647437658,
    -0.09057285290477289,
    -0.057764292787313445,
    0.07799792208643927,
    -0.09862747895638783,
    0.43823161636887553,
    -0.18002757741685768,
    0.059008201752548554,
    -0.25201181172085213,
    -0.12138084272727703,
    -0.12451667543310992,
    -0.007000628066013162,
    -0.30447031322999235,
    -0.1141260060359763,
    0.4994375315683106,
    0.2287619280260201,
    -0.11864526629655407,
    -0.0036536519061466555,
    0.03815399849757153,
    0.020160075432640177,
    -0.10564487786943458,
    0.3715149346466551,
    0.28121508751897406,
    0.224088160811988,
    0.03339270687294761,
    0.20625130875414857,
    -0.19998825843133686,
    0.24435685427868067,
    0.14449490141249477,
    -0.026802485236496594,
    0.13100262722322759,
    0.12445715001491948,
    0.19325750879691425,
    -0.04643100861315172,
    -0.09229375756526449,
    -0.024417268655550817,
    -0.03636353670148354,
    -0.058992851015749234,
    0.02606705980445309,
    0.12154656553262291,
    -0.27604032546729707,
    -0.0379328942141041,
    0.05276109815725586,
    -0.2353925306975427,
    -0.17157617176895354,
    0.3369330457342686,
    0.32402719390568363,
    -3.8224731025756754e-33,
    0.17607677172797093,
    0.17145787040284627,
    0.02189523846437989,
    0.021280195825013146,
    0.13480990205811233,
    -0.3063579730584554,
    0.3317691932776969,
    -0.25545150103294473,
    -0.023369123184154576,
    -0.4342596879570963,
    0.3594268277143928,
    -0.21335991959767264,
    0.23626605594108058,
    -0.026217091486715263,
    -0.1805118954862375,
    0.09224525483219707,
    -0.14319645348599447,
    -0.21253131197782463,
    -0.07953645972854745,
    -0.3119933502288415,
    -0.29586086099055153,
    0.2282997470321106,
    -0.14615489729221562,
    -0.05856661031476209,
    -0.4948988446741646,
    0.06739368681074949,
    0.05877374506160806,
    -0.33094802371914556,
    -0.26168875448803763,
    -0.014996200261015617,
    -0.2521425587784038,
    0.19075254152384516,
    -0.05311478430795936,
    -0.1339899412234049,
    -0.11325097718693093,
    0.038692884939150414,
    -0.0009010040154481412,
    -0.3687767268650386,
    0.27198223320420567,
    0.22528335525861914,
    0.06092196487643448,
    -0.1989926414797459,
    0.5229924818908,
    -0.03408945014502438,
    -0.06337410662059845,
    0.5069798350607178,
    -0.22134078453725567,
    0.2190029031504956,
    0.43488046791477597,
    0.08418941992716832,
    0.14912398779361427,
    -0.04107555029639241,
    -0.09821771085103151,
    0.25324526618405474,
    0.05030412828364294,
    0.0289590360494367,
    -0.2685203151300345,
    0.025057269418746763,
    -0.055435774841323844,
    -0.18522354429075177,
    0.22007562856116997,
    0.269460130599823,
    -0.11721271536808445,
    0.36338996555236014,
    -0.09505790548085855,
    0.24460827748186414,
    -0.06652272010644404,
    -0.24487873394188708,
    0.394297835908684,
    -0.3720126681325421,
    0.012311646692231868,
    0.042970292747040305,
    0.12110945328175782,
    -0.061714650047962706,
    -0.03053433912060793,
    0.09309129920327172,
    0.19761261473062988,
    -0.25717515227352933,
    0.0283125048821832,
    0.15280005084259024,
    -0.3134784362468526,
    -0.08738106229858185,
    0.029344468809093464,
    0.24731768762131479,
    0.09769332571506409,
    -0.004479532580072436,
    -0.13842488959935847,
    -0.026166953430899687,
    -0.07585309656836974,
    -0.40877002975298693,
    -0.30063409980084393,
    -0.3798589885988569,
    0.10845859515276256,
    0.08215592754635827,
    -0.43772684740227935,
    1.2901662397881358e-32,
    0.3660345725711359,
    -0.14509339048354963,
    0.16423281978696358,
    0.22054084435908028,
    0.2080406218661294,
    -0.31438242576241227,
    -0.4734367146046315,
    0.062496589190745716,
    -0.0183505728785598,
    0.4371795546323637,
    0.3955805080818253,
    0.15712633500763168,
    0.1216534408736212,
    -0.43171615116311784,
    0.03425088761815273,
    0.12224640185997265,
    0.3569747221472962,
    0.21535710209745224,
    -0.07161393527629231,
    0.3109939185397092,
    0.2303518800677857,
    -0.023513360473827696,
    -0.013164007902984654,
    0.20037928724521994,
    -0.18059111804925887,
    0.3656067085971785,
    0.17669852504545647,
    -0.0021496059640372283,
    0.3334527413175254,
    -0.14872230168886233,
    0.09684503004524772,
    0.06574819426988125,
    0.16478623914816914,
    -0.0626946092992167,
    0.4059327505174782,
    -0.07208973378862063,
    0.12410436748102743,
    -0.3712623877778488,
    -0.3000679580282486,
    0.10466135823637294,
    -0.08309775655893212,
    -0.25963108564055076,
    -0.5307604272687133,
    0.2725389400619354,
    0.09162646085488788,
    0.45745369165242555,
    -0.29232830913301,
    0.14919615553854432,
    0.12337763977017555,
    0.10114613821694139,
    -0.3310881031283975,
    -0.13580532848469992,
    -0.12829973303230233,
    -0.028565300547261842,
    -0.09803541552941693,
    -0.03234538687378291,
    0.14829418399574862,
    0.04457005761230597,
    -0.16360625759287278,
    -0.13347308349154313,
    0.11616205913830599,
    0.41967261564457287,
    0.15663203367650863,
    0.36913920193079086,
    0.04907723913319823,
    0.20797686296439544,
    -0.2120455998483511,
    0.17307707652438462,
    -0.6025790350366621,
    0.41673446154523436,
    -0.01910000952217365,
    0.207502830337261,
    -0.0873413657907822,
    0.200609931676049,
    0.00971497719900902,
    0.36455074856070424,
    0.41518805171322326,
    0.1064779582705787,
    0.1793937480019909,
    -0.1652414182727551,
    -0.23124781440978975,
    0.18507638440611915,
    -0.03426030172307066,
    0.30792090732004845,
    0.2239844193868892,
    0.2176086002271537,
    -0.11066103550241875,
    -0.7606093461088852,
    0.10764992327280706,
    -0.11981956812852462,
    0.39026997891701687,
    0.04931339150865814,
    0.007630221097162321,
    -0.22192770321477492,
    0.2124795010802176,
    2.4979688859318e-8,
    0.09633051037782063,
    -0.11026148283336393,
    0.010994481260906557,
    0.07130282533819762,
    -0.4313837293801427,
    -0.2930896246665615,
    -0.1972628634391206,
    0.05157212232968098,
    -0.26233646288843243,
    0.21091203595437066,
    -0.5669269578633225,
    -0.15775873284196273,
    0.2116372066482582,
    0.17494743207835156,
    -0.3692655060213757,
    -0.16518765976299774,
    0.11659615397914971,
    -0.07237095745539651,
    0.02461298285636607,
    -0.24400537536486033,
    -0.04368793782250848,
    -0.10446807149911962,
    0.585435318261682,
    -0.6028862981654689,
    -0.49233257924006996,
    0.196557076137197,
    0.0725076575435513,
    -0.29097758476507657,
    -0.01555647523996253,
    -0.2507326026498371,
    -0.2261684597365869,
    0.10248505302145487,
    -0.1292607126049141,
    0.4267658700052809,
    0.0782170427863181,
    0.17457193720105818,
    -0.16054236941471767,
    -0.09809385999833495,
    -0.4330155551801847,
    -0.09759638809062851,
    -0.052033526690634484,
    -0.41329653226660384,
    0.4199170841903306,
    -0.19272135763807588,
    0.33665675052685134,
    -0.17312818622813148,
    0.08252991576610341,
    0.284412126573309,
    0.6009569019236991,
    0.19738235775733906,
    -0.24214805342609647,
    0.03125848565134804,
    -0.04081637922991401,
    -0.08819687795874732,
    -0.014375290195983366,
    0.027238718245060835,
    -0.0936101798915387,
    0.17119788637922892,
    0.20261181527043193,
    -0.14076981136949437,
    0.33499356129877905,
    -0.054709285759776904,
    -0.4227977406896103,
    -0.10339530411565509
  ],
  "b": -0.10627125195520475,
  "dim": 384
}