{
  "w": [
    -0.16070039363222782,
    -0.06876936137126416,
    0.004314767315458717,
    -0.07907620760069586,
    -0.21707304065838057,
    0.7101241419320451,
    0.2912697350341415,
    -0.1854884511271749,
    -0.47075632429395986,
    -0.057914195825471027,
    -0.17885733525487826,
    0.23109368038499706,
    -0.033455404919536164,
    0.1375171035229839,
    0.6239870737687958,
    0.36688241958754825,
    0.782180988256911,
    0.30816437937224067,
    0.35363794990841996,
    -0.3684587904685019,
    -0.44974991665428943,
    -0.24104194293821363,
    0.41262793914983553,
    -0.09701534802388491,
    -0.38592513912893595,
    0.37510217194667467,
    0.2845897219503789,
    0.024552516694661748,
    0.4532976451472649,
    -0.05250765861415951,
    -0.2688371794254414,
    0.05583115728020812,
    0.34065581397572575,
    0.2277403502977811,
    -0.6359166669513043,
    0.920235813830683,
    0.21463748730422874,
    -0.39000459653205855,
    0.17803283246773352,
    0.2715076607171204,
    -0.2800021272569814,
    -0.09495335404255836,
    0.4341080421584221,
    -0.04770780499003805,
    -0.3254213563582277,
    -0.2773627605707472,
    0.22644225805942358,
    -0.22220859770735152,
    -0.13021211014947326,
    0.05384637858827507,
    0.03131136359357614,
    -0.11151235960639817,
    -0.028305395059641043,
    -0.6627327007599436,
    -0.06440442651320828,
    0.38082541196526853,
    0.003497272096641512,
    -1.13830161297107,
    -0.11698703048871802,
    -0.5831337152287037,
    -0.06588588347896847,
    0.5436710655474252,
    0.22783110352290614,
    -0.09395274533142321,
    -0.24679875927983297,
    -0.5851223116985245,
    -0.4035459640113367,
    0.8764867656449159,
    -0.23597154982968574,
    -0.4837464225846616,
    -0.01874187889571916,
    0.032293129677396164,
    0.5757624008522173,
    -0.5119196507770667,
    -0.12318280871205106,
    0.0752152061061627,
    -0.46062749439653283,
    0.10669767587613826,
    -0.30789070959135323,
    -0.14643960794556266,
    0.7056837436238341,
    0.2208747336165151,
    0.09824846975798064,
    -0.32944353906302776,
    -0.6043378127643269,
    -0.219967368836099,
    -0.4320485760120048,
    -0.20469734469453127,
    0.012532419205145244,
    0.145389193392524,
    -0.1599444091778139,
    0.16348923198720303,
    -1.107245976514106,
    -0.21663668073504228,
    -0.24388706140508878,
    -0.4392267360770182,
    -0.30635807412926813,
    -0.3171522368868771,
    0.3233115343648338,
    -0.04261250427762969,
    -0.01936233231852116,
    0.09400268261215954,
    0.1437418961492303,
    -0.08329697661323489,
    0.0785490837491514,
    0.11231953787561949,
    -0.14989618163984403,
    0.047292628147872176,
    0.1509281654483675,
    -0.010263127488337302,
    0.4990922071879448,
    0.3590027680293735,
    0.1257125890948027,
    0.3781805841407388,
    0.18522208517675634,
    -0.3701005067788792,
    -0.029076994211907785,
    -0.22445227820669464,
    -0.09990144118895218,
    0.03091762568592982,
    0.6836397374617241,
    0.15897474960062663,
    0.3611011747153343,
    0.17383777906832348,
    0.2612951488704551,
    0.19012771910363338,
    0.12923215540148972,
    -2.1760735723783328e-32,
    0.22615824167254658,
    0.4008083947779019,
    0.47987171546121726,
    0.7582453031518978,
    0.2097366622506709,
    0.06406291960789144,
    -0.21652872475799068,
    -0.567332334150699,
    -0.8134943839734783,
    -0.5674713210305461,
    -0.2319474840950059,
    0.44510858939434295,
    0.3389762616159256,
    0.3566343506000289,
    -0.5698048867866439,
    -0.37087099748644936,
    -0.7802166022416109,
    -0.5540622129883658,
    -0.22348919502330294,
    0.4483595598027893,
    -0.4967844589554338,
    0.24402501463244608,
    0.049521216041782584,
    0.22110632758701693,
    0.03981829896303393,
    -0.33283644687357483,
    0.3473587505706939,
    0.0014719338883285975,
    -0.5395250168060404,
    0.026993291273984407,
    0.3308723143566078,
    -0.12263930056057283,
    -0.6106293169187966,
    -0.20896778478165423,
    -0.3258927363470577,
    0.05424629558998424,
    -0.15998434479567286,
    -0.5489350087585084,
    0.5908529609941066,
    0.6091047407952306,
    0.27282025039647506,
    0.08647342918713531,
    0.343940540745268,
    0.38755465640097003,
    -0.3621995723631688,
    0.5888769409304755,
    -0.37350605781478396,
    0.6552510559084984,
    0.49364212874000146,
    -0.7236317506034315,
    -0.18261586121876233,
    -0.482190546757846,
    -0.07554301408855062,
    -0.23085262449493052,
    0.38098261225190094,
    0.10858513851167122,
    -0.5083281708244239,
    0.6413515549308524,
    0.42030741696611335,
    0.010526849325743725,
    -0.112499328761863,
    0.24956761477324568,
    -0.20481850854762465,
    -0.2884162875289647,
    0.17612375415476103,
    0.23717744223710152,
    0.1901584420245507,
    0.3448605707176912,
    0.45015880576387024,
    0.20423379898241828,
    -0.2561820398478879,
    -0.017233311097989777,
    -0.16704446778142623,
    -0.23464196371338675,
    0.20885618737701278,
    0.149395152836996,
    0.20696168416592553,
    -0.35429549254759296,
    0.18506745932800597,
    0.5533019722491705,
    0.060475372357846814,
    0.3229838010913741,
    -0.3169682520429871,
    -0.11702393011234032,
    0.22427862835797482,
    -0.06806730028841969,
    -0.013669463073723147,
    -0.850161563559186,
    -0.4498084767344762,
    -0.12936405690448052,
    0.1696998629156941,
    -0.15266216331958904,
    0.7262343117473241,
    -0.04695682329062416,
    -0.512427860356267,
    1.407078645083694e-32,
    1.0933318657703714,
    0.15599930651318775,
    0.09269643221434411,
    0.16215195030719778,
    0.03678751553333431,
    -0.22123493621266305,
    -0.6306556949865759,
    -0.5513918050296412,
    -0.5120112750099205,
    0.41307263873031114,
    -0.03166875977858776,
    0.09320809309996815,
    0.1476547601409457,
    -0.1354949740966949,
    -0.7851645677394468,
    -0.19788508249931072,
    -0.19666078850019272,
    0.26179680714992704,
    -0.17188922761452932,
    -0.038952246701747344,
    -0.04733763193887517,
    0.11692596091482253,
    0.29567264583744146,
    -0.4006800328888775,
    0.5069515347719916,
    -0.03648372113115794,
    -0.5263757761506219,
    0.0860301254475777,
    -0.2395376108574623,
    -0.047136201107091914,
    -0.23644387579208598,
    -0.06336638216587995,
    0.29622380507946805,
    -0.4436239453705893,
    -0.1443273696313245,
    0.5395743827698586,
    0.07001695472676772,
    -0.8932206752149636,
    -0.07104023380008125,
    0.6163255689563316,
    0.09285405624934441,
    -0.24175574527745614,
    0.18339241393005123,
    0.38323577980357687,
    -0.07173716345749061,
    0.3817621727806628,
    -0.5448286991783265,
    0.5906634979269733,
    -0.7178005184539673,
    -0.43786728718244056,
    -0.0010261915940300503,
    0.0790970614962998,
    -0.6818235014221817,
    -0.5286324204146948,
    0.5325191028262972,
    -0.14650438083139944,
    0.10780609299960424,
    -0.28403613327741156,
    -0.020614789911362865,
    -0.16779490479067705,
    -1.0757276422685154,
    -0.05348833919823978,
    -0.01776644951446195,
    0.4849042689054542,
    0.22503126424209446,
    -0.5651630421965013,
    -0.15912670888360156,
    -0.404467081361247,
    -1.1291626325703688,
    0.04558503744202256,
    -0.8190274121551596,
    0.1883878723470178,
    -0.376976368822719,
    0.5828708263688124,
    -0.058105359791762186,
    -0.27113928914231267,
    0.9105530438482449,
    -0.3562064650588968,
    0.08919105322394065,
    0.3585788379766851,
    -0.5189925751873381,
    -0.06018109459116034,
    -0.298844799034795,
    0.04841109612790576,
    0.15301902024473957,
    0.790165719676963,
    -0.27691733730566165,
    -0.48789783411888465,
    0.122810213465677,
    0.19640744865104673,
    -0.06282293518815821,
    0.21231945717831321,
    -0.11777016692379169,
    -0.9091595503725435,
    0.4307276124114169,
    1.1854364117717473e-8,
    0.18110319737980995,
    0.05982164067286263,
    -0.7543538476794559,
    -0.08087308159751236,
    -0.07804675690616669,
    0.13460729566421256,
    0.03707084713678278,
    -0.2284665641050823,
    -0.24804399191556473,
    0.4190341637617917,
    0.6335419521857996,
    0.36874189268520574,
    0.23841979430452118,
    0.30269669935599053,
    0.49999131302873095,
    -0.0047821605005196185,
    0.8180959041241933,
    0.3179343062716477,
    0.1271510480109373,
    0.27450640565638457,
    0.6262602305437589,
    0.11255063005044467,
    0.5524260221137322,
    0.35815431735556763,
    -0.10426105266558536,
    -0.035470127324546144,
    -0.5946749170555738,
    -0.904164043518553,
    -0.27067676722827094,
    0.30901817059602493,
    0.2920842434701011,
    0.026889551774083958,
    -0.2850359383907675,
    0.30569934548798017,
    0.5835947228808877,
    0.32665891210622416,
    -0.497780581538246,
    -0.03949019651702893,
    0.35788671743424993,
    0.08794491861719009,
    -0.05975288469656679,
    -0.043054309156112705,
    -0.31152718287635595,
    0.015130244489592177,
    -0.4744273233648669,
    -0.024517558620384666,
    0.7831022295195257,
    0.20567072024895897,
    -0.21155928326783077,
    0.14873678476102123,
    -0.21672573775873866,
    -0.3032510522275208,
    0.46079833879923815,
    -0.012850412584302402,
    -0.038752488121419355,
    0.35502454871688893,
    -0.40580411562827096,
    0.22361725820378545,
    0.18613501645834696,
    -0.04580864259866791,
    0.2814665986700033,
    0.9731272062622459,
    -0.060686867418329085,
    -0.41718488387424835
  ],
  "b": -0.28836681926248814,
  "dim": 384
}